<?xml version="1.0"?>
<opencv_storage>
<cascade>
  <stageType>BOOST</stageType>
  <featureType>LBP</featureType>
  <height>30</height>
  <width>90</width>
  <stageParams>
    <boostType>GAB</boostType>
    <minHitRate>9.9900001287460327e-01</minHitRate>
    <maxFalseAlarm>5.0000000000000000e-01</maxFalseAlarm>
    <weightTrimRate>9.4999999999999996e-01</weightTrimRate>
    <maxDepth>1</maxDepth>
    <maxWeakCount>100</maxWeakCount></stageParams>
  <featureParams>
    <maxCatCount>256</maxCatCount>
    <featSize>1</featSize></featureParams>
  <stageNum>19</stageNum>
  <stages>
    <!-- stage 0 -->
    <_>
      <maxWeakCount>7</maxWeakCount>
      <stageThreshold>-1.7186255455017090e+00</stageThreshold>
      <weakClassifiers>
        <_>
          <internalNodes>
            0 -1 25 -83311480 -2118329 -550324225 -538993093 -119373078
            -2114626 -879523637 -30069</internalNodes>
          <leafValues>
            -8.8226848840713501e-01 -1.7188358306884766e-01</leafValues></_>
        <_>
          <internalNodes>
            0 -1 136 1431827187 1968304183 1934848079 -182103033
            -519772993 1997659763 268846811 1363628879</internalNodes>
          <leafValues>
            -6.8026775121688843e-01 2.1250313520431519e-01</leafValues></_>
        <_>
          <internalNodes>
            0 -1 118 -800865664 -547122909 -1377850481 -1101173
            -1795035677 -552210298 51350411 -951847157</internalNodes>
          <leafValues>
            -5.1495611667633057e-01 3.7413847446441650e-01</leafValues></_>
        <_>
          <internalNodes>
            0 -1 45 -149122392 -113179912 1590695429 2131188753
            -386995458 -100861185 -1731687766 -1145596770</internalNodes>
          <leafValues>
            -5.6437766551971436e-01 3.4326717257499695e-01</leafValues></_>
        <_>
          <internalNodes>
            0 -1 194 -801062782 1998522051 21193179 -584756285
            -363149137 1359676142 1227033259 1364189326</internalNodes>
          <leafValues>
            -5.4026716947555542e-01 3.8655290007591248e-01</leafValues></_>
        <_>
          <internalNodes>
            0 -1 183 -295124864 -537476094 3581628 1380407238 -662859590
            320661691 1388971247 1107526571</internalNodes>
          <leafValues>
            -6.0269147157669067e-01 2.9267770051956177e-01</leafValues></_>
        <_>
          <internalNodes>
            0 -1 50 455755993 -138474623 -8192035 -1217995883
            -1415996532 -69523317 460303087 -1624356983</internalNodes>
          <leafValues>
            -4.3232178688049316e-01 4.2244932055473328e-01</leafValues></_></weakClassifiers></_>
    <!-- stage 1 -->
    <_>
      <maxWeakCount>9</maxWeakCount>
      <stageThreshold>-1.9088174104690552e+00</stageThreshold>
      <weakClassifiers>
        <_>
          <internalNodes>
            0 -1 17 -50200658 -584419 -243389095 -10517623 -1598316290
            -4456463 -892432657 -29777</internalNodes>
          <leafValues>
            -8.3205753564834595e-01 -2.4452339112758636e-01</leafValues></_>
        <_>
          <internalNodes>
            0 -1 127 -482156285 -954231519 2003773903 -574119481
            -1279792917 -78775070 2102586607 -15505533</internalNodes>
          <leafValues>
            -5.2641195058822632e-01 2.5495284795761108e-01</leafValues></_>
        <_>
          <internalNodes>
            0 -1 43 4819080 -1610616436 -1348999171 -410748 -1473327953
            -1075851062 17818602 -1433435704</internalNodes>
          <leafValues>
            -6.0102701187133789e-01 2.5622349977493286e-01</leafValues></_>
        <_>
          <internalNodes>
            0 -1 131 -71568768 -1117122172 486556708 -1618217291
            -541326968 910451824 728711421 -1</internalNodes>
          <leafValues>
            -4.2816942930221558e-01 3.5378652811050415e-01</leafValues></_>
        <_>
          <internalNodes>
            0 -1 142 -1743776560 -844609447 -1193639937 496377628
            873618665 -1901661843 663760380 422052920</internalNodes>
          <leafValues>
            -6.9229608774185181e-01 2.6897642016410828e-01</leafValues></_>
        <_>
          <internalNodes>
            0 -1 16 -1548173094 -139129583 -12365384 2134607161
            193498782 -1634037023 436993018 -1153752945</internalNodes>
          <leafValues>
            -4.7433114051818848e-01 3.2223191857337952e-01</leafValues></_>
        <_>
          <internalNodes>
            0 -1 171 -541794656 -1054289472 34903298 1570619247
            741342120 83915008 84127907 327141566</internalNodes>
          <leafValues>
            -6.1378604173660278e-01 2.8178930282592773e-01</leafValues></_>
        <_>
          <internalNodes>
            0 -1 182 1973420714 -29382467 356614283 2138190825
            -1189168449 -73729542 -878448641 -1853870552</internalNodes>
          <leafValues>
            -5.4926520586013794e-01 2.7576026320457458e-01</leafValues></_>
        <_>
          <internalNodes>
            0 -1 199 -1121196374 -1322447772 839518208 1562215996
            403363262 19464484 1218562014 1397202417</internalNodes>
          <leafValues>
            -5.7777237892150879e-01 2.7374514937400818e-01</leafValues></_></weakClassifiers></_>
    <!-- stage 2 -->
    <_>
      <maxWeakCount>10</maxWeakCount>
      <stageThreshold>-2.2814645767211914e+00</stageThreshold>
      <weakClassifiers>
        <_>
          <internalNodes>
            0 -1 124 -1072708093 -4333 -12058629 -10485817 -922882081
            -873735178 466091999 -72880381</internalNodes>
          <leafValues>
            -7.8920418024063110e-01 -2.2924600541591644e-01</leafValues></_>
        <_>
          <internalNodes>
            0 -1 18 -8134518 -69267320 -1212115873 -45416319 -1081440118
            -271638434 -2138908465 -13660501</internalNodes>
          <leafValues>
            -5.7609081268310547e-01 1.8729464709758759e-01</leafValues></_>
        <_>
          <internalNodes>
            0 -1 121 -492590974 514826010 1733804610 1878517146
            1080025003 -1208137081 1633148366 1986262787</internalNodes>
          <leafValues>
            -5.5730396509170532e-01 2.5217100977897644e-01</leafValues></_>
        <_>
          <internalNodes>
            0 -1 113 -283140094 -39851513 1177722914 -201331041
            1668301184 1912934673 -476684870 1130304863</internalNodes>
          <leafValues>
            -6.1780333518981934e-01 2.1686694025993347e-01</leafValues></_>
        <_>
          <internalNodes>
            0 -1 66 -1843113775 1602188636 -1082655883 -33906718
            -1152269320 -1146176539 1058847231 -1145417219</internalNodes>
          <leafValues>
            -3.8940978050231934e-01 3.9275541901588440e-01</leafValues></_>
        <_>
          <internalNodes>
            0 -1 77 1900257482 -247995839 54942913 1192743834 1462203114
            1901060059 1767297711 1086453502</internalNodes>
          <leafValues>
            -5.1706922054290771e-01 2.9228675365447998e-01</leafValues></_>
        <_>
          <internalNodes>
            0 -1 2 2010885058 -357589 72192044 128686343 -863034934
            1362592677 1665924067 1393488895</internalNodes>
          <leafValues>
            -5.0529712438583374e-01 2.6836904883384705e-01</leafValues></_>
        <_>
          <internalNodes>
            0 -1 101 -1414916644 -331669264 1708346839 1368463197
            -1972569012 -350225814 218267646 420615673</internalNodes>
          <leafValues>
            -5.3004264831542969e-01 2.6781868934631348e-01</leafValues></_>
        <_>
          <internalNodes>
            0 -1 185 -706025270 1277682570 1891655874 1915961928
            -938294130 -559949813 1085520282 -616916225</internalNodes>
          <leafValues>
            -4.7598424553871155e-01 3.1038892269134521e-01</leafValues></_>
        <_>
          <internalNodes>
            0 -1 29 -1323044736 -679644189 828889563 2035802605
            843497646 141055497 296286158 1178845248</internalNodes>
          <leafValues>
            -5.4151272773742676e-01 2.6204383373260498e-01</leafValues></_></weakClassifiers></_>
    <!-- stage 3 -->
    <_>
      <maxWeakCount>10</maxWeakCount>
      <stageThreshold>-2.0829119682312012e+00</stageThreshold>
      <weakClassifiers>
        <_>
          <internalNodes>
            0 -1 135 -1073487101 -80480777 -1377305639 -136845765
            -1902117893 -378932253 -1620317897 -143940829</internalNodes>
          <leafValues>
            -7.9716664552688599e-01 -2.9298132658004761e-01</leafValues></_>
        <_>
          <internalNodes>
            0 -1 33 -108492920 -39895532 -1095587047 -548763111
            -961837862 -543164428 2130479814 -543453526</internalNodes>
          <leafValues>
            -6.4467954635620117e-01 6.2546849250793457e-02</leafValues></_>
        <_>
          <internalNodes>
            0 -1 129 -428875134 -398002358 -462173054 -555748689
            -492314673 -215152702 1109824415 1412919867</internalNodes>
          <leafValues>
            -5.4255944490432739e-01 2.2708113491535187e-01</leafValues></_>
        <_>
          <internalNodes>
            0 -1 204 -257178430 -2141227953 -923539741 1380793039
            -407974453 1200469576 -1039141841 -770714737</internalNodes>
          <leafValues>
            -3.4995257854461670e-01 3.8548403978347778e-01</leafValues></_>
        <_>
          <internalNodes>
            0 -1 85 -1339010599 -911801824 -82717861 1474256341
            -1888318360 -59152054 404911831 -1101377091</internalNodes>
          <leafValues>
            -3.9086338877677917e-01 3.4351095557212830e-01</leafValues></_>
        <_>
          <internalNodes>
            0 -1 179 -1885426520 489234440 321134596 431540265
            -1448677912 153125280 689535157 529751261</internalNodes>
          <leafValues>
            -6.3350731134414673e-01 2.3271454870700836e-01</leafValues></_>
        <_>
          <internalNodes>
            0 -1 108 900756049 1944215923 -688447689 396518870
            -1419849475 -561543197 794941267 -21997343</internalNodes>
          <leafValues>
            -4.6421918272972107e-01 2.6971769332885742e-01</leafValues></_>
        <_>
          <internalNodes>
            0 -1 165 -1277959992 2130911368 402672121 1912930954
            -1870478161 -1427962502 -1151866881 -617628689</internalNodes>
          <leafValues>
            -3.8278982043266296e-01 3.6758491396903992e-01</leafValues></_>
        <_>
          <internalNodes>
            0 -1 3 -645613408 -176462782 -1858061135 -414218581
            -1822194194 -337939155 -1854086691 1137252363</internalNodes>
          <leafValues>
            -5.3239315748214722e-01 2.6747408509254456e-01</leafValues></_>
        <_>
          <internalNodes>
            0 -1 196 -158367742 -975556452 1493817362 -487996119
            -1389908066 172926024 1464304139 1125638245</internalNodes>
          <leafValues>
            -5.3088533878326416e-01 2.5885781645774841e-01</leafValues></_></weakClassifiers></_>
    <!-- stage 4 -->
    <_>
      <maxWeakCount>13</maxWeakCount>
      <stageThreshold>-2.0508162975311279e+00</stageThreshold>
      <weakClassifiers>
        <_>
          <internalNodes>
            0 -1 55 -13902849 -5411891 437241047 -12632995 -270562641
            -813019217 894103551 -2159105</internalNodes>
          <leafValues>
            -7.5237339735031128e-01 -2.0762711763381958e-01</leafValues></_>
        <_>
          <internalNodes>
            0 -1 159 486555385 525026268 -1612752975 2145335613
            -1616216390 -32605979 -1658672673 -1105561155</internalNodes>
          <leafValues>
            -4.3257385492324829e-01 2.3500190675258636e-01</leafValues></_>
        <_>
          <internalNodes>
            0 -1 169 -253564766 1910002498 842895590 1909156281
            -629794129 1981993323 -1038103585 51028619</internalNodes>
          <leafValues>
            -5.3677541017532349e-01 2.0986199378967285e-01</leafValues></_>
        <_>
          <internalNodes>
            0 -1 54 -2145255424 -941663078 -101074447 -776067892
            -1574269238 -79701069 -1903771768 -1481958008</internalNodes>
          <leafValues>
            -7.0358425378799438e-01 1.5739673376083374e-01</leafValues></_>
        <_>
          <internalNodes>
            0 -1 146 -160517630 -1493708857 305651968 -235162422
            1179091074 1635726592 -137893945 1934562991</internalNodes>
          <leafValues>
            -5.4103362560272217e-01 2.1935366094112396e-01</leafValues></_>
        <_>
          <internalNodes>
            0 -1 4 -1410164488 1595650349 1070108544 958786500
            -1866168418 1296937734 -1253380357 867858779</internalNodes>
          <leafValues>
            -4.8909547924995422e-01 2.8522133827209473e-01</leafValues></_>
        <_>
          <internalNodes>
            0 -1 76 -402438654 -1056604374 -912316928 -546964679
            943659298 150961021 -201624715 -1049640088</internalNodes>
          <leafValues>
            -4.3282607197761536e-01 2.9639047384262085e-01</leafValues></_>
        <_>
          <internalNodes>
            0 -1 105 -499405630 414045797 -1597406558 2034751801
            1161814411 -200442562 -606106919 273676243</internalNodes>
          <leafValues>
            -4.8738548159599304e-01 2.5719502568244934e-01</leafValues></_>
        <_>
          <internalNodes>
            0 -1 82 -1078439213 -886226662 1410470583 -677686020
            -1122375731 -1409340261 1133695445 -1991098175</internalNodes>
          <leafValues>
            -3.9615890383720398e-01 3.4769788384437561e-01</leafValues></_>
        <_>
          <internalNodes>
            0 -1 192 -1742206516 2144343152 -1510475329 1527925145
            -91059253 -138839062 -355918152 1529483393</internalNodes>
          <leafValues>
            -5.3076213598251343e-01 2.4076542258262634e-01</leafValues></_>
        <_>
          <internalNodes>
            0 -1 21 -75111806 -533610196 229278138 -203692064
            -1957762998 1297614878 1017536282 389992903</internalNodes>
          <leafValues>
            -5.0431138277053833e-01 2.5807246565818787e-01</leafValues></_>
        <_>
          <internalNodes>
            0 -1 133 -1869523883 1205519412 915224025 1439985949
            -1682020865 -139593106 -1616681508 -1349871556</internalNodes>
          <leafValues>
            -3.9249750971794128e-01 3.3009609580039978e-01</leafValues></_>
        <_>
          <internalNodes>
            0 -1 53 -337441110 -78324455 -294697459 1518156193
            -1703625217 210790559 -1771906417 -82358914</internalNodes>
          <leafValues>
            -3.9055350422859192e-01 3.4214001893997192e-01</leafValues></_></weakClassifiers></_>
    <!-- stage 5 -->
    <_>
      <maxWeakCount>12</maxWeakCount>
      <stageThreshold>-2.1108787059783936e+00</stageThreshold>
      <weakClassifiers>
        <_>
          <internalNodes>
            0 -1 190 -1060650417 -706478177 -58064929 -73672757
            -35653377 -100665409 -54591813 -202641785</internalNodes>
          <leafValues>
            -7.5293415784835815e-01 -2.2096608579158783e-01</leafValues></_>
        <_>
          <internalNodes>
            0 -1 126 -1064852989 -157294865 -16815249 -271587607
            -915176217 -604193051 -540016987 -873469261</internalNodes>
          <leafValues>
            -4.2221736907958984e-01 2.3111927509307861e-01</leafValues></_>
        <_>
          <internalNodes>
            0 -1 132 796416949 -547586060 -542114309 996251504
            -1513320579 -1095849252 525512142 -1094042280</internalNodes>
          <leafValues>
            -3.7749266624450684e-01 2.9173225164413452e-01</leafValues></_>
        <_>
          <internalNodes>
            0 -1 188 -1347420534 1098934756 -1855619070 -749611780
            -956696359 84026724 863483627 1513082859</internalNodes>
          <leafValues>
            -4.6505472064018250e-01 2.3873284459114075e-01</leafValues></_>
        <_>
          <internalNodes>
            0 -1 34 -238122844 -172005280 2029658496 1441619709
            506474054 1209030438 1465652167 1394243465</internalNodes>
          <leafValues>
            -5.1119321584701538e-01 2.4844120442867279e-01</leafValues></_>
        <_>
          <internalNodes>
            0 -1 154 -1616012768 -913298300 1414282944 1204379069
            796138912 207883113 939459321 534711805</internalNodes>
          <leafValues>
            -5.5791515111923218e-01 2.0163354277610779e-01</leafValues></_>
        <_>
          <internalNodes>
            0 -1 150 -1951514375 -619637728 719643893 2110526293
            177786042 -572094966 1934816191 -1706425936</internalNodes>
          <leafValues>
            -3.6904796957969666e-01 3.2051935791969299e-01</leafValues></_>
        <_>
          <internalNodes>
            0 -1 47 -890679670 1605412480 -340476405 140761983 -85547009
            48771695 -2141459222 1432779451</internalNodes>
          <leafValues>
            -5.2403271198272705e-01 2.2610054910182953e-01</leafValues></_>
        <_>
          <internalNodes>
            0 -1 110 -311172054 -1485864051 387448244 1831953747
            1601619084 1676100949 -266042129 1970406418</internalNodes>
          <leafValues>
            -5.6278526782989502e-01 2.0868921279907227e-01</leafValues></_>
        <_>
          <internalNodes>
            0 -1 125 -1792910127 1337597204 782168057 2138985692
            743991486 -276866049 -1380853857 -1960162924</internalNodes>
          <leafValues>
            -3.9770054817199707e-01 3.0656608939170837e-01</leafValues></_>
        <_>
          <internalNodes>
            0 -1 214 -1623680440 -2102486976 167277413 -527589644
            999991470 104801244 1370748708 -370158435</internalNodes>
          <leafValues>
            -3.9138668775558472e-01 3.0824404954910278e-01</leafValues></_>
        <_>
          <internalNodes>
            0 -1 158 624450584 -1143144092 576017343 -1109582927
            1039853818 -11642235 256174257 -1973545452</internalNodes>
          <leafValues>
            -5.2369678020477295e-01 2.2887313365936279e-01</leafValues></_></weakClassifiers></_>
    <!-- stage 6 -->
    <_>
      <maxWeakCount>12</maxWeakCount>
      <stageThreshold>-1.8574423789978027e+00</stageThreshold>
      <weakClassifiers>
        <_>
          <internalNodes>
            0 -1 168 -800336893 -739393041 -285253633 -177648577
            -811602977 -573580385 -35390469 -305139557</internalNodes>
          <leafValues>
            -7.5948578119277954e-01 -2.8632116317749023e-01</leafValues></_>
        <_>
          <internalNodes>
            0 -1 78 -256929142 -777262336 435611439 -34873912 -473852453
            1939062213 50124683 1365245663</internalNodes>
          <leafValues>
            -5.3621822595596313e-01 8.2830011844635010e-02</leafValues></_>
        <_>
          <internalNodes>
            0 -1 91 1849229337 -336648016 1067234551 1547592041
            1016470742 -8455628 -1083516675 -1089860323</internalNodes>
          <leafValues>
            -3.5752373933792114e-01 2.8543746471405029e-01</leafValues></_>
        <_>
          <internalNodes>
            0 -1 170 -1214277600 1889451456 649599904 2005768664
            -457984017 305152 371056687 997037513</internalNodes>
          <leafValues>
            -5.0273537635803223e-01 2.0535835623741150e-01</leafValues></_>
        <_>
          <internalNodes>
            0 -1 74 -871543806 -810840245 1955383600 -251683151
            1736198150 1309605770 -249793465 -254355903</internalNodes>
          <leafValues>
            -3.9472183585166931e-01 2.7761954069137573e-01</leafValues></_>
        <_>
          <internalNodes>
            0 -1 30 316902560 1395702548 922057676 1494295048 1049778202
            276490660 1596874479 53608776</internalNodes>
          <leafValues>
            -6.2203472852706909e-01 1.9017116725444794e-01</leafValues></_>
        <_>
          <internalNodes>
            0 -1 160 -787479552 -673585844 -136339023 -221161994
            1175490187 -543560659 1646320574 273416282</internalNodes>
          <leafValues>
            -5.5634957551956177e-01 1.9238229095935822e-01</leafValues></_>
        <_>
          <internalNodes>
            0 -1 64 -1549628914 218613935 -697483774 -1025124016
            -1634108661 120041523 -52464218 -1315972682</internalNodes>
          <leafValues>
            -4.7503143548965454e-01 2.4540200829505920e-01</leafValues></_>
        <_>
          <internalNodes>
            0 -1 44 -1141189645 1873366747 -22069765 505362301 524015438
            -1953366118 -1788552001 -543269447</internalNodes>
          <leafValues>
            -2.9860711097717285e-01 4.0015664696693420e-01</leafValues></_>
        <_>
          <internalNodes>
            0 -1 112 -893000563 -22025363 1060711405 -681067529
            2126032890 -1111099737 665281967 -280527514</internalNodes>
          <leafValues>
            -3.0321389436721802e-01 3.8954842090606689e-01</leafValues></_>
        <_>
          <internalNodes>
            0 -1 59 2087331974 1270963970 1183065096 1110123596
            -1116988837 -1624322496 2047663306 -1099247851</internalNodes>
          <leafValues>
            -5.5172365903854370e-01 2.3552565276622772e-01</leafValues></_>
        <_>
          <internalNodes>
            0 -1 211 -207033630 231711432 -1455676702 -687350912
            -516569106 42095428 -685596177 995059181</internalNodes>
          <leafValues>
            -4.7904595732688904e-01 2.4461738765239716e-01</leafValues></_></weakClassifiers></_>
    <!-- stage 7 -->
    <_>
      <maxWeakCount>13</maxWeakCount>
      <stageThreshold>-1.7077872753143311e+00</stageThreshold>
      <weakClassifiers>
        <_>
          <internalNodes>
            0 -1 207 -851461365 -341063137 1826466003 1659756475
            -1382037929 -495346561 397603575 -68160001</internalNodes>
          <leafValues>
            -7.7457815408706665e-01 -3.5819935798645020e-01</leafValues></_>
        <_>
          <internalNodes>
            0 -1 148 188500190 -872720392 1776713725 2134573821
            780408986 -275058850 -1096124706 -1088932631</internalNodes>
          <leafValues>
            -4.6817490458488464e-01 1.3670179247856140e-01</leafValues></_>
        <_>
          <internalNodes>
            0 -1 193 -1073725310 1571606023 1688160430 -713883193
            289836723 -101246427 55478923 587874703</internalNodes>
          <leafValues>
            -5.4797041416168213e-01 1.7512194812297821e-01</leafValues></_>
        <_>
          <internalNodes>
            0 -1 221 -530337688 858604976 -130404150 968398197
            -872378662 146381172 1979708671 380329469</internalNodes>
          <leafValues>
            -4.2940416932106018e-01 2.5490742921829224e-01</leafValues></_>
        <_>
          <internalNodes>
            0 -1 109 430461168 -584551742 1082219251 1447058837
            -1208476898 -1895077040 318812051 387591644</internalNodes>
          <leafValues>
            -5.4719513654708862e-01 1.8170507252216339e-01</leafValues></_>
        <_>
          <internalNodes>
            0 -1 197 -808529206 201743339 415276262 -1619840310
            -1317616317 1112426058 -1068512022 1394825324</internalNodes>
          <leafValues>
            -5.2955561876296997e-01 2.0261120796203613e-01</leafValues></_>
        <_>
          <internalNodes>
            0 -1 52 -1868980022 1504101034 -782250580 -1247346847
            -389284182 -2005212167 62562172 15461572</internalNodes>
          <leafValues>
            -5.4612612724304199e-01 2.0533499121665955e-01</leafValues></_>
        <_>
          <internalNodes>
            0 -1 7 -184316330 -1166302 -427924235 -246780666 -551900421
            -957492185 549855471 -1074985317</internalNodes>
          <leafValues>
            -3.8236057758331299e-01 2.8304672241210938e-01</leafValues></_>
        <_>
          <internalNodes>
            0 -1 26 -1700245263 -12879778 1376507897 -406096646
            314803280 -1160846019 12410357 344594589</internalNodes>
          <leafValues>
            -4.7362932562828064e-01 2.3097495734691620e-01</leafValues></_>
        <_>
          <internalNodes>
            0 -1 120 -918050814 -2111195255 -112840950 -173756457
            2016798607 797260583 728102547 -287877309</internalNodes>
          <leafValues>
            -4.6321973204612732e-01 2.4171166121959686e-01</leafValues></_>
        <_>
          <internalNodes>
            0 -1 231 -1724923614 77835040 839631184 1968150012
            -1816269943 46845343 910936038 1497482585</internalNodes>
          <leafValues>
            -5.0333487987518311e-01 2.2241322696208954e-01</leafValues></_>
        <_>
          <internalNodes>
            0 -1 100 -1761253643 1733191633 -1228144642 534721717
            -780131632 -304164980 -778789383 -1208693568</internalNodes>
          <leafValues>
            -3.6431744694709778e-01 3.2356125116348267e-01</leafValues></_>
        <_>
          <internalNodes>
            0 -1 48 1608519816 1604343550 1984760498 138299884
            1763990865 307631191 -1402572830 654331231</internalNodes>
          <leafValues>
            -6.4426249265670776e-01 1.8119251728057861e-01</leafValues></_></weakClassifiers></_>
    <!-- stage 8 -->
    <_>
      <maxWeakCount>13</maxWeakCount>
      <stageThreshold>-1.8873031139373779e+00</stageThreshold>
      <weakClassifiers>
        <_>
          <internalNodes>
            0 -1 141 -1711664897 -1007715556 1556069883 -12617559
            -1897244466 -1168148152 -1682253250 -10814503</internalNodes>
          <leafValues>
            -7.7458256483078003e-01 -3.9099526405334473e-01</leafValues></_>
        <_>
          <internalNodes>
            0 -1 123 -2147234557 -11012257 -5770241 -62947353 -67677202
            -100794449 -1619137345 -1541996029</internalNodes>
          <leafValues>
            -4.6172136068344116e-01 1.3756203651428223e-01</leafValues></_>
        <_>
          <internalNodes>
            0 -1 186 -429752320 -1026650766 437456773 1344612681
            -340163087 23246388 372392691 1378876847</internalNodes>
          <leafValues>
            -5.3628975152969360e-01 1.6723155975341797e-01</leafValues></_>
        <_>
          <internalNodes>
            0 -1 87 -635305984 -127062853 -1142993329 837554144
            796414788 -2008524030 -377651871 2031967073</internalNodes>
          <leafValues>
            -5.0162428617477417e-01 2.1161319315433502e-01</leafValues></_>
        <_>
          <internalNodes>
            0 -1 208 -1985286968 -1347879160 1803788721 -135700591
            -170378565 -2086958850 923456403 -1678227255</internalNodes>
          <leafValues>
            -3.7695455551147461e-01 2.7525782585144043e-01</leafValues></_>
        <_>
          <internalNodes>
            0 -1 119 -675306837 -625157218 -1227914405 -805319685
            2002775115 439614647 -841623441 1733809921</internalNodes>
          <leafValues>
            -2.9748007655143738e-01 3.5843476653099060e-01</leafValues></_>
        <_>
          <internalNodes>
            0 -1 14 -911353154 -213311568 844481824 2066625445
            -456749622 -1717961912 416142586 -1250254713</internalNodes>
          <leafValues>
            -3.7513834238052368e-01 2.9219055175781250e-01</leafValues></_>
        <_>
          <internalNodes>
            0 -1 172 77989936 -1699055216 -768806799 1544056529
            1059610042 -71812741 -1760635153 -1961227012</internalNodes>
          <leafValues>
            -4.1603752970695496e-01 2.6106896996498108e-01</leafValues></_>
        <_>
          <internalNodes>
            0 -1 102 -1601886208 -803869787 -1644985655 -69409853
            89062635 1417411549 2081346536 1078414285</internalNodes>
          <leafValues>
            -6.1343550682067871e-01 1.8054682016372681e-01</leafValues></_>
        <_>
          <internalNodes>
            0 -1 151 -989854464 -38726317 1733463563 -1259923479
            -287001121 938254271 -175584263 -1907666702</internalNodes>
          <leafValues>
            -4.2236217856407166e-01 2.6059830188751221e-01</leafValues></_>
        <_>
          <internalNodes>
            0 -1 226 -523222908 -521195794 -1763973379 2039184780
            -521669652 939691042 1262151663 1753992</internalNodes>
          <leafValues>
            -5.3707450628280640e-01 2.1697990596294403e-01</leafValues></_>
        <_>
          <internalNodes>
            0 -1 94 -1284217697 -44216299 442862963 1573204243
            -1243471335 -1681039305 -1795038209 -730524396</internalNodes>
          <leafValues>
            -4.0497556328773499e-01 2.7370718121528625e-01</leafValues></_>
        <_>
          <internalNodes>
            0 -1 39 -866132341 -978634301 -665584380 -96829707
            2000296516 1193703531 1055528883 -720113161</internalNodes>
          <leafValues>
            -3.9247238636016846e-01 3.0559521913528442e-01</leafValues></_></weakClassifiers></_>
    <!-- stage 9 -->
    <_>
      <maxWeakCount>13</maxWeakCount>
      <stageThreshold>-1.7150645256042480e+00</stageThreshold>
      <weakClassifiers>
        <_>
          <internalNodes>
            0 -1 174 -500706805 -646461558 -288358401 -469781638
            -14690353 -103827461 -138415377 -267402873</internalNodes>
          <leafValues>
            -7.6357269287109375e-01 -3.5754188895225525e-01</leafValues></_>
        <_>
          <internalNodes>
            0 -1 173 -2138553107 -537447265 -1084262657 -707119651
            -67486785 -19144742 -294913825 -1422239541</internalNodes>
          <leafValues>
            -4.4152152538299561e-01 1.4424507319927216e-01</leafValues></_>
        <_>
          <internalNodes>
            0 -1 155 -1719083096 1296070824 1084104843 1770592809
            -1809865079 -939142912 -183027213 536730877</internalNodes>
          <leafValues>
            -4.4971588253974915e-01 1.9386391341686249e-01</leafValues></_>
        <_>
          <internalNodes>
            0 -1 184 -2005965118 1141370856 -1069017406 1406044938
            1328184462 89274274 1941803895 822868219</internalNodes>
          <leafValues>
            -5.4378068447113037e-01 1.6383069753646851e-01</leafValues></_>
        <_>
          <internalNodes>
            0 -1 41 2132761851 -1600394385 979513056 -1640134553
            -1076083698 -830506857 -551144201 -1363211236</internalNodes>
          <leafValues>
            -3.0626255273818970e-01 3.3977001905441284e-01</leafValues></_>
        <_>
          <internalNodes>
            0 -1 15 -379370582 -147440858 -324777660 -553017054
            -437217045 -380655379 438562285 -753946354</internalNodes>
          <leafValues>
            -4.3061155080795288e-01 2.4829307198524475e-01</leafValues></_>
        <_>
          <internalNodes>
            0 -1 145 744557219 797161188 1042093575 -815801377 656293487
            961367694 2008802054 -71314217</internalNodes>
          <leafValues>
            -3.2697257399559021e-01 3.1381863355636597e-01</leafValues></_>
        <_>
          <internalNodes>
            0 -1 58 1585016450 -1779945972 -975183088 -988389221
            1956278176 229570485 -51003572 7357508</internalNodes>
          <leafValues>
            -5.9673124551773071e-01 1.8538521230220795e-01</leafValues></_>
        <_>
          <internalNodes>
            0 -1 49 -2076703384 -1074133940 -1275583504 937787001
            -299498299 790579017 -831345409 791300324</internalNodes>
          <leafValues>
            -5.3879195451736450e-01 1.8795704841613770e-01</leafValues></_>
        <_>
          <internalNodes>
            0 -1 40 -499504636 -1347563979 830377508 -226754873
            -896033273 1311783763 778792271 524963285</internalNodes>
          <leafValues>
            -5.4602628946304321e-01 1.8263167142868042e-01</leafValues></_>
        <_>
          <internalNodes>
            0 -1 220 639652888 2099546877 1226120575 931471139
            -202713995 -43389207 931454968 -1154985235</internalNodes>
          <leafValues>
            -3.6677420139312744e-01 2.8414985537528992e-01</leafValues></_>
        <_>
          <internalNodes>
            0 -1 224 1032055460 1154466148 1294580483 121877833
            610701559 217696492 1581879473 32445741</internalNodes>
          <leafValues>
            -5.5160188674926758e-01 1.9860999286174774e-01</leafValues></_>
        <_>
          <internalNodes>
            0 -1 24 -362284977 -2016669751 -1007234402 -92972580
            -415452759 1843424911 2147411964 -2115191173</internalNodes>
          <leafValues>
            -3.2721295952796936e-01 3.3927902579307556e-01</leafValues></_></weakClassifiers></_>
    <!-- stage 10 -->
    <_>
      <maxWeakCount>12</maxWeakCount>
      <stageThreshold>-1.6687884330749512e+00</stageThreshold>
      <weakClassifiers>
        <_>
          <internalNodes>
            0 -1 99 -541388587 -7714403 924186587 2110020729 -1145403777
            -71305653 -1703350593 -1415703075</internalNodes>
          <leafValues>
            -7.7211737632751465e-01 -3.7741735577583313e-01</leafValues></_>
        <_>
          <internalNodes>
            0 -1 117 -1196273471 -546286427 466474481 1399682548
            -1129776449 -620068942 542691827 -1708633019</internalNodes>
          <leafValues>
            -4.6529302000999451e-01 1.0934529453516006e-01</leafValues></_>
        <_>
          <internalNodes>
            0 -1 81 1280180482 -1673596381 -859902436 599770834
            1439157763 219600661 1138423583 1436702518</internalNodes>
          <leafValues>
            -5.3861767053604126e-01 1.5968762338161469e-01</leafValues></_>
        <_>
          <internalNodes>
            0 -1 103 -1053759998 -1137862718 -285040799 -1535687145
            -712663383 1573876339 304539339 -547126477</internalNodes>
          <leafValues>
            -3.9588207006454468e-01 2.5179263949394226e-01</leafValues></_>
        <_>
          <internalNodes>
            0 -1 38 -817890814 -6074041 851065504 1927272675 1018116994
            1110687695 668907174 1466431895</internalNodes>
          <leafValues>
            -4.7960346937179565e-01 1.9065129756927490e-01</leafValues></_>
        <_>
          <internalNodes>
            0 -1 8 651704572 -562242878 -822830989 -626381476 823877224
            -1125647046 894073828 -1426688425</internalNodes>
          <leafValues>
            -3.8658690452575684e-01 2.5336250662803650e-01</leafValues></_>
        <_>
          <internalNodes>
            0 -1 178 -1815174112 -1043753984 -1284657276 345981977
            1207402778 1078004138 582447568 35626423</internalNodes>
          <leafValues>
            -6.1171990633010864e-01 1.5808060765266418e-01</leafValues></_>
        <_>
          <internalNodes>
            0 -1 166 -2020409605 464731317 1034686393 901577149
            -320274963 483299068 767147517 -67490083</internalNodes>
          <leafValues>
            -3.1491658091545105e-01 3.3556818962097168e-01</leafValues></_>
        <_>
          <internalNodes>
            0 -1 176 -66289664 -169197561 1503643050 1377146194
            -925314325 -562050711 850332311 10127</internalNodes>
          <leafValues>
            -5.5404931306838989e-01 1.8554937839508057e-01</leafValues></_>
        <_>
          <internalNodes>
            0 -1 227 -637689649 1558138615 -1024017696 1366767741
            -22104738 -2065849314 -1717309830 -1450542710</internalNodes>
          <leafValues>
            -3.1074991822242737e-01 3.5405379533767700e-01</leafValues></_>
        <_>
          <internalNodes>
            0 -1 73 -1381373568 -288898385 1598404194 -1150585007
            1498758003 1178434009 1199788323 -1242607149</internalNodes>
          <leafValues>
            -4.1642776131629944e-01 2.5951847434043884e-01</leafValues></_>
        <_>
          <internalNodes>
            0 -1 28 -753677406 -242814296 2108315698 -159401651
            225108366 484716486 810701293 1357303145</internalNodes>
          <leafValues>
            -4.3194901943206787e-01 2.6009249687194824e-01</leafValues></_></weakClassifiers></_>
    <!-- stage 11 -->
    <_>
      <maxWeakCount>13</maxWeakCount>
      <stageThreshold>-1.5786364078521729e+00</stageThreshold>
      <weakClassifiers>
        <_>
          <internalNodes>
            0 -1 70 -774900277 -142622735 -137529869 -72492809
            -1097859091 -1321041 -1287407121 -1844785</internalNodes>
          <leafValues>
            -7.3894155025482178e-01 -2.7564102411270142e-01</leafValues></_>
        <_>
          <internalNodes>
            0 -1 217 1825654917 -809553005 668653127 -892094749
            166400074 1934310078 -88211642 -22284601</internalNodes>
          <leafValues>
            -4.2259287834167480e-01 1.5616704523563385e-01</leafValues></_>
        <_>
          <internalNodes>
            0 -1 84 145228801 -1610784977 -1096913005 -574791067
            -1602076681 -137560073 -1112939533 -2097411727</internalNodes>
          <leafValues>
            -4.6446380019187927e-01 1.9526521861553192e-01</leafValues></_>
        <_>
          <internalNodes>
            0 -1 95 -256782110 -347463392 9691803 1444898261 -1883598070
            -886035688 864429557 2069721855</internalNodes>
          <leafValues>
            -4.0969157218933105e-01 2.2083868086338043e-01</leafValues></_>
        <_>
          <internalNodes>
            0 -1 206 1067425952 1500125923 -1755283224 1399189734
            -103235359 155167108 -79319344 1175214079</internalNodes>
          <leafValues>
            -4.6519887447357178e-01 2.3340362310409546e-01</leafValues></_>
        <_>
          <internalNodes>
            0 -1 200 -1648773325 -1450428607 -277733936 -219680771
            -1091867043 -1880176330 403125493 -68470532</internalNodes>
          <leafValues>
            -3.1420576572418213e-01 3.1574258208274841e-01</leafValues></_>
        <_>
          <internalNodes>
            0 -1 175 -262089534 1697539255 -1866241492 -666513881
            -1969714981 1842011182 -1327699445 1891872774</internalNodes>
          <leafValues>
            -4.3651929497718811e-01 2.2882758080959320e-01</leafValues></_>
        <_>
          <internalNodes>
            0 -1 180 605553728 -558843467 -1077957636 -233284139
            -26202489 -43078 -339158103 942289337</internalNodes>
          <leafValues>
            -6.1140984296798706e-01 1.6342124342918396e-01</leafValues></_>
        <_>
          <internalNodes>
            0 -1 232 -1347811872 -1046361180 1729006758 -1750086267
            -2103824951 556784160 1939788724 1134296185</internalNodes>
          <leafValues>
            -5.2339625358581543e-01 1.8694980442523956e-01</leafValues></_>
        <_>
          <internalNodes>
            0 -1 92 -1363781935 -1679153863 519961078 1592487278
            599624724 -1383137945 -1594497935 1577744072</internalNodes>
          <leafValues>
            -4.3910288810729980e-01 2.3569230735301971e-01</leafValues></_>
        <_>
          <internalNodes>
            0 -1 164 1932714112 1371252029 -2018334470 574259202
            1095448361 1347966863 84146163 321615323</internalNodes>
          <leafValues>
            -5.7375651597976685e-01 1.7377738654613495e-01</leafValues></_>
        <_>
          <internalNodes>
            0 -1 234 -279689203 2032975746 -176299482 2055731198
            -201433906 -875569946 -385880434 -218106369</internalNodes>
          <leafValues>
            -3.0402526259422302e-01 3.5125914216041565e-01</leafValues></_>
        <_>
          <internalNodes>
            0 -1 9 -211247870 -1353932286 34858914 1250598632 1658196883
            1333749823 376348596 1138899992</internalNodes>
          <leafValues>
            -6.0027354955673218e-01 1.8339653313159943e-01</leafValues></_></weakClassifiers></_>
    <!-- stage 12 -->
    <_>
      <maxWeakCount>14</maxWeakCount>
      <stageThreshold>-1.8646886348724365e+00</stageThreshold>
      <weakClassifiers>
        <_>
          <internalNodes>
            0 -1 27 -1659635227 -269624117 -873090649 -604008219
            -1616708897 -21321107 -247531529 -72365092</internalNodes>
          <leafValues>
            -7.5800257921218872e-01 -3.4094369411468506e-01</leafValues></_>
        <_>
          <internalNodes>
            0 -1 153 -1068519665 202216714 -94671295 -118379793
            2004732639 -143180753 1865406423 -1410656577</internalNodes>
          <leafValues>
            -3.9521428942680359e-01 1.8077433109283447e-01</leafValues></_>
        <_>
          <internalNodes>
            0 -1 107 -835033796 -717746268 1972271101 2140962301
            1308245500 716201916 1805532600 -1409614399</internalNodes>
          <leafValues>
            -3.7975516915321350e-01 2.2840039432048798e-01</leafValues></_>
        <_>
          <internalNodes>
            0 -1 228 -638713752 1345922612 858645378 1420517037
            -1845765910 1636355052 -1258078785 1081506</internalNodes>
          <leafValues>
            -5.5735689401626587e-01 1.6444604098796844e-01</leafValues></_>
        <_>
          <internalNodes>
            0 -1 32 -345497556 -1335884478 1777230566 1135823295
            2146213484 441479117 1636738692 1333821110</internalNodes>
          <leafValues>
            -4.9337729811668396e-01 1.9801765680313110e-01</leafValues></_>
        <_>
          <internalNodes>
            0 -1 80 -291598845 2142085226 1155468310 -755152188
            1239245312 367977803 -701668656 -203753975</internalNodes>
          <leafValues>
            -3.1973993778228760e-01 2.8923818469047546e-01</leafValues></_>
        <_>
          <internalNodes>
            0 -1 98 673716765 796416432 1973259645 665279952 718407164
            -18106063 -654917773 -585360035</internalNodes>
          <leafValues>
            -3.8302239775657654e-01 2.5201347470283508e-01</leafValues></_>
        <_>
          <internalNodes>
            0 -1 213 -83869302 -2016587869 -760421664 1404659115
            1103580506 522539022 1955510270 869271274</internalNodes>
          <leafValues>
            -5.2272415161132812e-01 1.8578872084617615e-01</leafValues></_>
        <_>
          <internalNodes>
            0 -1 51 -1331568472 -2114520889 -1620082865 835706264
            -2001416483 -2047937009 698066062 1753164</internalNodes>
          <leafValues>
            -5.5807167291641235e-01 1.6977873444557190e-01</leafValues></_>
        <_>
          <internalNodes>
            0 -1 37 -1314806776 -51135811 1324384161 -531181780
            -1495857943 -553940085 -1697806327 -287817940</internalNodes>
          <leafValues>
            -4.9084034562110901e-01 1.9970913231372833e-01</leafValues></_>
        <_>
          <internalNodes>
            0 -1 138 -871551469 -57676185 486006457 -1645891717 -9232945
            1459083261 -274761603 -83890253</internalNodes>
          <leafValues>
            -2.8137654066085815e-01 3.8414856791496277e-01</leafValues></_>
        <_>
          <internalNodes>
            0 -1 72 -264509240 -756824882 -438488702 -1085475688
            1393239226 840362887 1959215443 1084999556</internalNodes>
          <leafValues>
            -4.7422897815704346e-01 2.2936116158962250e-01</leafValues></_>
        <_>
          <internalNodes>
            0 -1 90 754519188 2137801877 -771576575 2076082161
            1506854957 200034809 -402428574 -1648855577</internalNodes>
          <leafValues>
            -4.3391445279121399e-01 2.4530071020126343e-01</leafValues></_>
        <_>
          <internalNodes>
            0 -1 161 -162685918 384635696 999534952 1193521882
            -268067160 1679480246 356636968 573495208</internalNodes>
          <leafValues>
            -5.2561128139495850e-01 1.9813540577888489e-01</leafValues></_></weakClassifiers></_>
    <!-- stage 13 -->
    <_>
      <maxWeakCount>14</maxWeakCount>
      <stageThreshold>-1.8273851871490479e+00</stageThreshold>
      <weakClassifiers>
        <_>
          <internalNodes>
            0 -1 75 -1215440461 -12617040 -549486729 1527756241
            -1106646274 -823398165 -22233449 -18098959</internalNodes>
          <leafValues>
            -7.5687974691390991e-01 -3.6606499552726746e-01</leafValues></_>
        <_>
          <internalNodes>
            0 -1 167 -776979011 -1623701100 1605898749 268180284
            -1112227844 968665272 2109647357 -1346820611</internalNodes>
          <leafValues>
            -4.7541302442550659e-01 8.7646201252937317e-02</leafValues></_>
        <_>
          <internalNodes>
            0 -1 163 -365776736 -489755392 -1421919839 587041899
            1274520904 1118582120 1605752569 1333379489</internalNodes>
          <leafValues>
            -4.8871329426765442e-01 1.6968932747840881e-01</leafValues></_>
        <_>
          <internalNodes>
            0 -1 187 310592138 -494659384 -2067784022 1342572339
            1107499146 -1922848676 1002872570 1447664895</internalNodes>
          <leafValues>
            -4.8175385594367981e-01 2.1251232922077179e-01</leafValues></_>
        <_>
          <internalNodes>
            0 -1 140 1302776064 -1181917325 1948073008 1841095464
            1752204189 1545367862 392553295 1197950079</internalNodes>
          <leafValues>
            -5.0725191831588745e-01 1.5864598751068115e-01</leafValues></_>
        <_>
          <internalNodes>
            0 -1 116 1774599 1605889469 -1142949330 -738347051
            -627054865 -94706822 -1109766790 -2143091705</internalNodes>
          <leafValues>
            -4.0458396077156067e-01 2.3394134640693665e-01</leafValues></_>
        <_>
          <internalNodes>
            0 -1 202 373948810 770342340 -1516732546 432618385
            -1212482056 -342743 -910319612 216011429</internalNodes>
          <leafValues>
            -5.2808827161788940e-01 1.7844244837760925e-01</leafValues></_>
        <_>
          <internalNodes>
            0 -1 57 -597335934 -424860445 557830896 1911810541 -65141042
            -1949707758 807130983 286522134</internalNodes>
          <leafValues>
            -4.5767846703529358e-01 2.0072510838508606e-01</leafValues></_>
        <_>
          <internalNodes>
            0 -1 195 -859766656 -409954851 183195378 -747905467
            -597464378 55273015 -413546070 1081068570</internalNodes>
          <leafValues>
            -4.6294569969177246e-01 2.0094959437847137e-01</leafValues></_>
        <_>
          <internalNodes>
            0 -1 149 -1699195791 -575775276 -1216721539 432887141
            -1424965768 -1114197673 -1158747171 -1627384459</internalNodes>
          <leafValues>
            -3.8462924957275391e-01 2.5123006105422974e-01</leafValues></_>
        <_>
          <internalNodes>
            0 -1 31 -319103736 -520390314 -333480818 1120659431
            1087327048 1447443807 379504454 1194490803</internalNodes>
          <leafValues>
            -6.1670416593551636e-01 1.6420336067676544e-01</leafValues></_>
        <_>
          <internalNodes>
            0 -1 23 -375983222 958657037 -2083299104 1903646964
            802391980 268241321 1713661182 -210836787</internalNodes>
          <leafValues>
            -3.6869186162948608e-01 2.7599826455116272e-01</leafValues></_>
        <_>
          <internalNodes>
            0 -1 111 -1941176315 -1331987097 1968962547 -64625014
            1625801701 -1418336075 -862905285 -1950351505</internalNodes>
          <leafValues>
            -3.2293328642845154e-01 3.2097682356834412e-01</leafValues></_>
        <_>
          <internalNodes>
            0 -1 6 -557336921 -1404330069 -1436623268 -2101520258
            2077848652 968505265 561172980 -1017676106</internalNodes>
          <leafValues>
            -3.9002722501754761e-01 2.7896654605865479e-01</leafValues></_></weakClassifiers></_>
    <!-- stage 14 -->
    <_>
      <maxWeakCount>15</maxWeakCount>
      <stageThreshold>-1.8149535655975342e+00</stageThreshold>
      <weakClassifiers>
        <_>
          <internalNodes>
            0 -1 122 -270008397 -1075652423 -1477974307 -1048602
            -539108437 1362448698 -797445445 -2113</internalNodes>
          <leafValues>
            -7.4224728345870972e-01 -3.0367505550384521e-01</leafValues></_>
        <_>
          <internalNodes>
            0 -1 191 37797898 1131892324 1927769855 -21630388 -539427378
            -562654218 -1656770866 1405462726</internalNodes>
          <leafValues>
            -5.8121299743652344e-01 2.3849552497267723e-02</leafValues></_>
        <_>
          <internalNodes>
            0 -1 93 -1738974989 -1443466502 2010838775 1927109090
            -1100162975 -935062168 1936364852 -684997037</internalNodes>
          <leafValues>
            -3.3134111762046814e-01 2.5737544894218445e-01</leafValues></_>
        <_>
          <internalNodes>
            0 -1 68 1199441922 1057326143 -1371616624 1695517830
            -1124249712 -437599041 -1115976395 1083710912</internalNodes>
          <leafValues>
            -5.4864925146102905e-01 1.5911617875099182e-01</leafValues></_>
        <_>
          <internalNodes>
            0 -1 162 2114803406 -12640269 791833008 -1685405596
            -502212084 -271356850 119320295 -301415346</internalNodes>
          <leafValues>
            -3.2278156280517578e-01 2.7616226673126221e-01</leafValues></_>
        <_>
          <internalNodes>
            0 -1 96 1135168600 1439829536 -1506198886 554880567
            1023363813 -1313875620 -706781719 1092047377</internalNodes>
          <leafValues>
            -4.8797112703323364e-01 2.0465846359729767e-01</leafValues></_>
        <_>
          <internalNodes>
            0 -1 230 1492975618 1712050056 -1050952512 1441598857
            1898570047 100702681 -785198899 1380427519</internalNodes>
          <leafValues>
            -4.7655519843101501e-01 1.8679055571556091e-01</leafValues></_>
        <_>
          <internalNodes>
            0 -1 216 -1488404942 -947120096 -1839647828 423435748
            720527508 245113000 388775359 252659872</internalNodes>
          <leafValues>
            -5.6161141395568848e-01 1.7266921699047089e-01</leafValues></_>
        <_>
          <internalNodes>
            0 -1 83 1402361977 -363920692 38525107 1463708892 944170587
            -1891899009 387177541 -1643490095</internalNodes>
          <leafValues>
            -3.6978244781494141e-01 2.5569152832031250e-01</leafValues></_>
        <_>
          <internalNodes>
            0 -1 79 -502878830 -1275109772 -122749505 -247044587
            1094201488 -248306186 -197716483 1047557504</internalNodes>
          <leafValues>
            -4.2867967486381531e-01 2.2653682529926300e-01</leafValues></_>
        <_>
          <internalNodes>
            0 -1 42 -1812457415 -1035000885 -591151379 -1193320451
            -6547380 1147398468 341696215 -15070725</internalNodes>
          <leafValues>
            -3.2205665111541748e-01 3.2285624742507935e-01</leafValues></_>
        <_>
          <internalNodes>
            0 -1 67 1026594856 231162602 938464579 1436356196
            -1733700134 1338635627 35758149 -1002057515</internalNodes>
          <leafValues>
            -4.5116111636161804e-01 2.2577045857906342e-01</leafValues></_>
        <_>
          <internalNodes>
            0 -1 205 1999897316 1328377464 1586103176 192157905
            774553538 139719052 -1917782145 470303852</internalNodes>
          <leafValues>
            -5.5737686157226562e-01 1.7991127073764801e-01</leafValues></_>
        <_>
          <internalNodes>
            0 -1 0 170264002 -12891542 -931464836 1854629542 -371140737
            -521817230 74831088 508251423</internalNodes>
          <leafValues>
            -5.1104986667633057e-01 1.9138337671756744e-01</leafValues></_>
        <_>
          <internalNodes>
            0 -1 219 -1464205384 1972148748 -300397805 -1616473652
            -1890125347 -1381360514 193997299 -2089304649</internalNodes>
          <leafValues>
            -3.3536866307258606e-01 3.2591632008552551e-01</leafValues></_></weakClassifiers></_>
    <!-- stage 15 -->
    <_>
      <maxWeakCount>15</maxWeakCount>
      <stageThreshold>-1.7738225460052490e+00</stageThreshold>
      <weakClassifiers>
        <_>
          <internalNodes>
            0 -1 152 -1976578357 -18941238 1241185375 -403833873
            -872727329 -1419583255 -358088735 -858791425</internalNodes>
          <leafValues>
            -7.5505858659744263e-01 -3.4865900874137878e-01</leafValues></_>
        <_>
          <internalNodes>
            0 -1 143 -258998142 2143359957 -315098401 -1387970177
            1393177962 -538215573 2104000435 -1758912305</internalNodes>
          <leafValues>
            -4.9768453836441040e-01 6.1386261135339737e-02</leafValues></_>
        <_>
          <internalNodes>
            0 -1 35 -1316954240 2002085758 -1116264718 -672885150
            -1304299807 1604320525 1195753121 20071624</internalNodes>
          <leafValues>
            -4.8704603314399719e-01 1.5956528484821320e-01</leafValues></_>
        <_>
          <internalNodes>
            0 -1 134 -1482662830 -309376908 81617465 11592535
            -1669603056 -935528585 372928759 505954316</internalNodes>
          <leafValues>
            -4.5490431785583496e-01 2.1779689192771912e-01</leafValues></_>
        <_>
          <internalNodes>
            0 -1 130 100781961 4177632 -1650135291 -1379012145
            -701321318 1013970927 219932451 -1368443530</internalNodes>
          <leafValues>
            -3.7849268317222595e-01 2.1898946166038513e-01</leafValues></_>
        <_>
          <internalNodes>
            0 -1 22 -653930097 -671687057 1437885570 -1215710363
            434914799 2130054637 1303704765 1128261506</internalNodes>
          <leafValues>
            -2.7192598581314087e-01 3.3004802465438843e-01</leafValues></_>
        <_>
          <internalNodes>
            0 -1 201 -1759476423 797687770 -134275265 2079686124
            -1078151431 -2018516993 -1610617356 -548202248</internalNodes>
          <leafValues>
            -2.9516375064849854e-01 3.1391623616218567e-01</leafValues></_>
        <_>
          <internalNodes>
            0 -1 69 102829440 -1208949517 576204007 1717192370
            -1597700150 -1051728095 1201677560 1411674221</internalNodes>
          <leafValues>
            -5.1544135808944702e-01 1.8029615283012390e-01</leafValues></_>
        <_>
          <internalNodes>
            0 -1 63 -12087748 -12527529 1862140842 2142372692
            -1913000986 -1698610277 -2017866392 -73356588</internalNodes>
          <leafValues>
            -4.2426776885986328e-01 2.1472716331481934e-01</leafValues></_>
        <_>
          <internalNodes>
            0 -1 225 247179264 -1902461609 1310914448 -2068093639
            -1294071257 -1466976357 445461027 -2138372409</internalNodes>
          <leafValues>
            -4.2405462265014648e-01 2.2025607526302338e-01</leafValues></_>
        <_>
          <internalNodes>
            0 -1 10 327048162 92322969 423375338 -798584081 -1315125539
            -414886655 1995122528 2035038409</internalNodes>
          <leafValues>
            -4.4256311655044556e-01 2.1223032474517822e-01</leafValues></_>
        <_>
          <internalNodes>
            0 -1 215 -1853568896 -1729030038 82623215 1552855917
            1244317282 1544904295 -2106130434 1124181132</internalNodes>
          <leafValues>
            -4.9829539656639099e-01 1.8853643536567688e-01</leafValues></_>
        <_>
          <internalNodes>
            0 -1 223 -1827143640 134153674 507764629 -258078217
            -2008885698 601860179 -335619897 -1333117510</internalNodes>
          <leafValues>
            -4.1254749894142151e-01 2.3876567184925079e-01</leafValues></_>
        <_>
          <internalNodes>
            0 -1 139 -1782532942 -1567962696 -1614142096 953617486
            -1595899864 1295974453 769484630 2023548360</internalNodes>
          <leafValues>
            -5.3247767686843872e-01 1.8748502433300018e-01</leafValues></_>
        <_>
          <internalNodes>
            0 -1 203 1531379842 -170068027 -534513462 -769740203
            -917942421 -249639513 -346654194 1342587195</internalNodes>
          <leafValues>
            -4.9187764525413513e-01 2.0561653375625610e-01</leafValues></_></weakClassifiers></_>
    <!-- stage 16 -->
    <_>
      <maxWeakCount>15</maxWeakCount>
      <stageThreshold>-1.8251465559005737e+00</stageThreshold>
      <weakClassifiers>
        <_>
          <internalNodes>
            0 -1 62 -71306753 -18356644 935852021 1333252855 -1170436213
            -1927488484 -586039361 -1094987269</internalNodes>
          <leafValues>
            -7.4099278450012207e-01 -2.9681274294853210e-01</leafValues></_>
        <_>
          <internalNodes>
            0 -1 65 -7316052 -1880154121 468549207 1962761327
            -1015121653 119971449 -1754340491 -1142227106</internalNodes>
          <leafValues>
            -4.1543740034103394e-01 1.3260167837142944e-01</leafValues></_>
        <_>
          <internalNodes>
            0 -1 88 -1606213440 -526209899 1857528843 -753938614
            1407404610 543521630 130772646 1147635567</internalNodes>
          <leafValues>
            -5.3915226459503174e-01 1.4076134562492371e-01</leafValues></_>
        <_>
          <internalNodes>
            0 -1 229 277450894 1641838424 250460302 1019322092
            2007890404 86367108 -1493322244 1105849384</internalNodes>
          <leafValues>
            -4.3786099553108215e-01 2.1389578282833099e-01</leafValues></_>
        <_>
          <internalNodes>
            0 -1 114 -1742730096 -1143914384 1455108319 692913609
            867844142 1673137467 -1140801810 464133721</internalNodes>
          <leafValues>
            -4.9104049801826477e-01 1.6246291995048523e-01</leafValues></_>
        <_>
          <internalNodes>
            0 -1 137 -1896023569 -774631652 -93344273 1421180380
            -1409378230 -1111851220 580237727 -1691673156</internalNodes>
          <leafValues>
            -2.5318896770477295e-01 3.5246858000755310e-01</leafValues></_>
        <_>
          <internalNodes>
            0 -1 89 212075011 480178211 -490066727 -490779625 1332813474
            1143347539 2104220244 1475536803</internalNodes>
          <leafValues>
            -4.3000167608261108e-01 2.1207171678543091e-01</leafValues></_>
        <_>
          <internalNodes>
            0 -1 157 -13581807 -898622864 -810069037 1440738649
            -15090762 -290730058 -138472193 -1617178681</internalNodes>
          <leafValues>
            -2.3986381292343140e-01 4.0997007489204407e-01</leafValues></_>
        <_>
          <internalNodes>
            0 -1 235 -1363998520 768165050 1805109298 325944012
            909278766 242884017 -257294382 -756577297</internalNodes>
          <leafValues>
            -3.8005390763282776e-01 2.5232765078544617e-01</leafValues></_>
        <_>
          <internalNodes>
            0 -1 189 -2053156418 -2131204632 -1649154303 280708965
            1536977605 -333846787 -339251951 -2137852552</internalNodes>
          <leafValues>
            -3.8773861527442932e-01 2.4290613830089569e-01</leafValues></_>
        <_>
          <internalNodes>
            0 -1 212 171870736 705804678 1570575128 20367430 -776129004
            -1502868250 -281449212 -1999240330</internalNodes>
          <leafValues>
            -5.0690239667892456e-01 1.8776488304138184e-01</leafValues></_>
        <_>
          <internalNodes>
            0 -1 210 523326702 1842305120 223496204 1460431531
            -968871442 2101504404 2071917031 1744985583</internalNodes>
          <leafValues>
            -4.5977869629859924e-01 2.0630815625190735e-01</leafValues></_>
        <_>
          <internalNodes>
            0 -1 177 -1397094560 -336185400 -664118685 2108320486
            -217079657 4671791 2033492899 -1623486027</internalNodes>
          <leafValues>
            -3.7279313802719116e-01 2.6847717165946960e-01</leafValues></_>
        <_>
          <internalNodes>
            0 -1 46 -2114695848 -1970897220 1443265508 -1050840319
            211337002 676866986 -1736580380 1108443356</internalNodes>
          <leafValues>
            -5.7389330863952637e-01 1.7646110057830811e-01</leafValues></_>
        <_>
          <internalNodes>
            0 -1 56 -1140853477 -588163189 -600623763 2049724076
            180642519 -1126870166 -1893735796 -269622456</internalNodes>
          <leafValues>
            -2.7078130841255188e-01 4.0204438567161560e-01</leafValues></_></weakClassifiers></_>
    <!-- stage 17 -->
    <_>
      <maxWeakCount>13</maxWeakCount>
      <stageThreshold>-1.6553707122802734e+00</stageThreshold>
      <weakClassifiers>
        <_>
          <internalNodes>
            0 -1 12 -4229121 -100721889 -12003027 1864104951 -1342844929
            -671089959 -707797769 -12591121</internalNodes>
          <leafValues>
            -7.1988177299499512e-01 -1.7687074840068817e-01</leafValues></_>
        <_>
          <internalNodes>
            0 -1 233 -126905109 1238356808 2125285955 1809698750
            -839063550 641660910 1863287715 -714901057</internalNodes>
          <leafValues>
            -4.4063368439674377e-01 9.5419891178607941e-02</leafValues></_>
        <_>
          <internalNodes>
            0 -1 19 688559244 724556480 -69733200 200605316 -2136722239
            1091534506 -1355537085 277587424</internalNodes>
          <leafValues>
            -5.4284608364105225e-01 1.3920718431472778e-01</leafValues></_>
        <_>
          <internalNodes>
            0 -1 209 23604240 498891728 -247892132 1341714225
            -1416856328 -272967182 1949440302 723527920</internalNodes>
          <leafValues>
            -5.7016783952713013e-01 1.6983780264854431e-01</leafValues></_>
        <_>
          <internalNodes>
            0 -1 104 -655564293 -175109336 -496341345 1877304805
            519766087 -1753841570 2120441846 1530491897</internalNodes>
          <leafValues>
            -3.3868736028671265e-01 2.5584369897842407e-01</leafValues></_>
        <_>
          <internalNodes>
            0 -1 181 -177758802 1426938560 -532215331 1023469261
            1922869225 -273072643 -499188758 -135746268</internalNodes>
          <leafValues>
            -3.2125374674797058e-01 2.7627271413803101e-01</leafValues></_>
        <_>
          <internalNodes>
            0 -1 5 -1131607510 -1418741928 685901496 563432854
            -1302538240 1078177072 1930088335 300385777</internalNodes>
          <leafValues>
            -5.4043221473693848e-01 1.7384707927703857e-01</leafValues></_>
        <_>
          <internalNodes>
            0 -1 13 1803364624 -279095516 875705559 -1091389904
            1996241912 -334163674 986754428 -1126010861</internalNodes>
          <leafValues>
            -4.1727671027183533e-01 2.1607263386249542e-01</leafValues></_>
        <_>
          <internalNodes>
            0 -1 218 602632394 1945579705 280172814 1396799146 641648623
            1887804888 1918073597 1585728720</internalNodes>
          <leafValues>
            -4.6632578969001770e-01 2.0560213923454285e-01</leafValues></_>
        <_>
          <internalNodes>
            0 -1 144 193478894 2082013236 255021285 -1300352666
            -1221044117 -529135182 330464697 840639978</internalNodes>
          <leafValues>
            -5.0951159000396729e-01 1.8325081467628479e-01</leafValues></_>
        <_>
          <internalNodes>
            0 -1 60 -566945412 1018199761 -24245352 362822007 289510236
            1748507112 468442572 973752070</internalNodes>
          <leafValues>
            -5.1028543710708618e-01 1.8482019007205963e-01</leafValues></_>
        <_>
          <internalNodes>
            0 -1 36 -1531014141 258420329 -185466975 -270010371
            -1095846417 -1753579596 -1074711129 -643059055</internalNodes>
          <leafValues>
            -3.0380842089653015e-01 3.3131659030914307e-01</leafValues></_>
        <_>
          <internalNodes>
            0 -1 222 -1682854848 -2083676544 130683424 386807881
            -1839000436 12534997 706574306 71521741</internalNodes>
          <leafValues>
            -6.2244611978530884e-01 1.6224804520606995e-01</leafValues></_></weakClassifiers></_>
    <!-- stage 18 -->
    <_>
      <maxWeakCount>15</maxWeakCount>
      <stageThreshold>-1.8672237396240234e+00</stageThreshold>
      <weakClassifiers>
        <_>
          <internalNodes>
            0 -1 152 -2144907701 -21431639 1213788255 -405799173
            -760644129 -277614355 -88604687 -858790914</internalNodes>
          <leafValues>
            -7.6659870147705078e-01 -3.8878387212753296e-01</leafValues></_>
        <_>
          <internalNodes>
            0 -1 61 -1064202581 -915407491 -96870017 -179243947
            -915740078 -68180034 -1309902769 4181329</internalNodes>
          <leafValues>
            -4.6505168080329895e-01 7.8870289027690887e-02</leafValues></_>
        <_>
          <internalNodes>
            0 -1 128 1636761634 -2077329790 730261010 -25955389
            -1487538584 1425754821 1389753801 1140946018</internalNodes>
          <leafValues>
            -5.9528583288192749e-01 1.2101262807846069e-01</leafValues></_>
        <_>
          <internalNodes>
            0 -1 97 302732501 162921656 1920305357 1564990885
            -1846542217 -1883495825 -1673083946 -1356371997</internalNodes>
          <leafValues>
            -2.5522941350936890e-01 3.2856166362762451e-01</leafValues></_>
        <_>
          <internalNodes>
            0 -1 86 -475330813 -303063262 416500805 -84833237 1291660805
            -402981011 1128101784 -770713791</internalNodes>
          <leafValues>
            -2.7875527739524841e-01 3.0886882543563843e-01</leafValues></_>
        <_>
          <internalNodes>
            0 -1 147 245893608 1060001432 528684797 91192709 1562120560
            -1601095605 388299871 1059588405</internalNodes>
          <leafValues>
            -5.9260582923889160e-01 1.5374049544334412e-01</leafValues></_>
        <_>
          <internalNodes>
            0 -1 71 -750400632 -512562299 1454416579 325771734
            -1402763935 -438872771 -378547913 -9381346</internalNodes>
          <leafValues>
            -3.4899970889091492e-01 2.7342486381530762e-01</leafValues></_>
        <_>
          <internalNodes>
            0 -1 11 2099887568 -872018848 1866894037 -894470914
            -79416751 2136607337 690817332 1724800424</internalNodes>
          <leafValues>
            -4.4051247835159302e-01 2.0807613432407379e-01</leafValues></_>
        <_>
          <internalNodes>
            0 -1 156 -89246824 -9431999 663472254 420153736 -1776024068
            -1978393159 788665653 -832588635</internalNodes>
          <leafValues>
            -3.8308715820312500e-01 2.4292889237403870e-01</leafValues></_>
        <_>
          <internalNodes>
            0 -1 106 543269513 405005777 742929071 -1402473349
            -1721290427 -1906456021 1816148705 91570270</internalNodes>
          <leafValues>
            -4.6134704351425171e-01 2.0640268921852112e-01</leafValues></_>
        <_>
          <internalNodes>
            0 -1 115 1076072449 1775719863 -1192347139 -1949717231
            -130827932 -767702699 954400509 -400123372</internalNodes>
          <leafValues>
            -3.9731195569038391e-01 2.4146348237991333e-01</leafValues></_>
        <_>
          <internalNodes>
            0 -1 20 -1642904380 2052616341 -1446889454 1115478157
            -1934987388 -2079617526 -1124575164 -615604902</internalNodes>
          <leafValues>
            -4.5864737033843994e-01 2.1416853368282318e-01</leafValues></_>
        <_>
          <internalNodes>
            0 -1 198 1759916736 448424026 -1058217416 405693611
            -1336590137 -818974534 1601095338 1107975714</internalNodes>
          <leafValues>
            -5.2065116167068481e-01 1.8708354234695435e-01</leafValues></_>
        <_>
          <internalNodes>
            0 -1 236 1720339914 1815496410 1822243714 -1880403151
            -1885155602 -20211528 -680733496 -1830384674</internalNodes>
          <leafValues>
            -3.6168190836906433e-01 2.9008105397224426e-01</leafValues></_>
        <_>
          <internalNodes>
            0 -1 1 1248584743 -1978325314 -1533260282 -1934705958
            1608208304 -171223078 -615395787 -465238017</internalNodes>
          <leafValues>
            -3.7451335787773132e-01 2.8126615285873413e-01</leafValues></_></weakClassifiers></_></stages>
  <features>
    <_>
      <rect>
        0 0 20 10</rect></_>
    <_>
      <rect>
        0 4 14 6</rect></_>
    <_>
      <rect>
        1 10 29 5</rect></_>
    <_>
      <rect>
        3 0 23 10</rect></_>
    <_>
      <rect>
        3 9 29 7</rect></_>
    <_>
      <rect>
        3 12 27 6</rect></_>
    <_>
      <rect>
        5 3 17 3</rect></_>
    <_>
      <rect>
        6 5 20 8</rect></_>
    <_>
      <rect>
        7 12 10 5</rect></_>
    <_>
      <rect>
        8 7 16 3</rect></_>
    <_>
      <rect>
        9 4 22 5</rect></_>
    <_>
      <rect>
        13 5 16 3</rect></_>
    <_>
      <rect>
        14 5 19 7</rect></_>
    <_>
      <rect>
        16 11 7 6</rect></_>
    <_>
      <rect>
        17 5 23 8</rect></_>
    <_>
      <rect>
        17 9 18 6</rect></_>
    <_>
      <rect>
        18 0 20 10</rect></_>
    <_>
      <rect>
        20 3 14 9</rect></_>
    <_>
      <rect>
        20 3 15 8</rect></_>
    <_>
      <rect>
        20 9 3 2</rect></_>
    <_>
      <rect>
        21 6 18 5</rect></_>
    <_>
      <rect>
        21 12 3 3</rect></_>
    <_>
      <rect>
        22 9 3 4</rect></_>
    <_>
      <rect>
        22 10 3 3</rect></_>
    <_>
      <rect>
        22 16 2 2</rect></_>
    <_>
      <rect>
        24 0 12 10</rect></_>
    <_>
      <rect>
        24 2 7 4</rect></_>
    <_>
      <rect>
        24 8 2 1</rect></_>
    <_>
      <rect>
        24 9 3 4</rect></_>
    <_>
      <rect>
        24 9 4 3</rect></_>
    <_>
      <rect>
        24 11 5 4</rect></_>
    <_>
      <rect>
        24 18 3 1</rect></_>
    <_>
      <rect>
        24 18 3 2</rect></_>
    <_>
      <rect>
        25 3 12 9</rect></_>
    <_>
      <rect>
        25 16 3 2</rect></_>
    <_>
      <rect>
        26 5 3 3</rect></_>
    <_>
      <rect>
        26 8 1 2</rect></_>
    <_>
      <rect>
        26 8 12 6</rect></_>
    <_>
      <rect>
        26 15 3 1</rect></_>
    <_>
      <rect>
        26 16 2 1</rect></_>
    <_>
      <rect>
        26 16 10 3</rect></_>
    <_>
      <rect>
        27 6 9 2</rect></_>
    <_>
      <rect>
        27 20 1 1</rect></_>
    <_>
      <rect>
        28 1 7 7</rect></_>
    <_>
      <rect>
        28 2 10 3</rect></_>
    <_>
      <rect>
        28 6 9 8</rect></_>
    <_>
      <rect>
        28 9 17 7</rect></_>
    <_>
      <rect>
        28 14 7 3</rect></_>
    <_>
      <rect>
        28 19 3 2</rect></_>
    <_>
      <rect>
        28 22 3 2</rect></_>
    <_>
      <rect>
        29 3 8 4</rect></_>
    <_>
      <rect>
        29 6 4 4</rect></_>
    <_>
      <rect>
        29 8 5 4</rect></_>
    <_>
      <rect>
        29 14 7 4</rect></_>
    <_>
      <rect>
        30 2 8 7</rect></_>
    <_>
      <rect>
        30 7 8 2</rect></_>
    <_>
      <rect>
        30 11 9 2</rect></_>
    <_>
      <rect>
        31 9 14 5</rect></_>
    <_>
      <rect>
        31 11 4 4</rect></_>
    <_>
      <rect>
        31 18 7 2</rect></_>
    <_>
      <rect>
        31 20 3 3</rect></_>
    <_>
      <rect>
        32 5 3 5</rect></_>
    <_>
      <rect>
        32 6 8 2</rect></_>
    <_>
      <rect>
        32 9 6 7</rect></_>
    <_>
      <rect>
        32 14 2 1</rect></_>
    <_>
      <rect>
        32 18 1 1</rect></_>
    <_>
      <rect>
        33 0 9 6</rect></_>
    <_>
      <rect>
        33 10 3 1</rect></_>
    <_>
      <rect>
        33 10 3 5</rect></_>
    <_>
      <rect>
        33 15 9 2</rect></_>
    <_>
      <rect>
        34 4 4 4</rect></_>
    <_>
      <rect>
        34 8 5 3</rect></_>
    <_>
      <rect>
        34 9 4 3</rect></_>
    <_>
      <rect>
        34 12 2 1</rect></_>
    <_>
      <rect>
        34 14 2 2</rect></_>
    <_>
      <rect>
        35 7 2 1</rect></_>
    <_>
      <rect>
        35 10 2 3</rect></_>
    <_>
      <rect>
        35 10 4 3</rect></_>
    <_>
      <rect>
        35 11 4 2</rect></_>
    <_>
      <rect>
        35 11 9 2</rect></_>
    <_>
      <rect>
        35 15 2 2</rect></_>
    <_>
      <rect>
        35 16 3 2</rect></_>
    <_>
      <rect>
        36 4 5 2</rect></_>
    <_>
      <rect>
        36 4 6 2</rect></_>
    <_>
      <rect>
        36 5 2 3</rect></_>
    <_>
      <rect>
        36 7 7 2</rect></_>
    <_>
      <rect>
        36 12 1 2</rect></_>
    <_>
      <rect>
        36 12 2 3</rect></_>
    <_>
      <rect>
        36 12 3 2</rect></_>
    <_>
      <rect>
        36 16 3 2</rect></_>
    <_>
      <rect>
        36 18 2 2</rect></_>
    <_>
      <rect>
        36 22 4 2</rect></_>
    <_>
      <rect>
        37 1 4 2</rect></_>
    <_>
      <rect>
        37 3 7 2</rect></_>
    <_>
      <rect>
        37 6 9 4</rect></_>
    <_>
      <rect>
        37 7 8 2</rect></_>
    <_>
      <rect>
        37 10 2 4</rect></_>
    <_>
      <rect>
        37 12 2 1</rect></_>
    <_>
      <rect>
        37 24 3 2</rect></_>
    <_>
      <rect>
        38 3 2 1</rect></_>
    <_>
      <rect>
        38 3 6 5</rect></_>
    <_>
      <rect>
        38 5 6 2</rect></_>
    <_>
      <rect>
        38 9 3 3</rect></_>
    <_>
      <rect>
        38 9 4 2</rect></_>
    <_>
      <rect>
        38 9 10 2</rect></_>
    <_>
      <rect>
        38 10 3 3</rect></_>
    <_>
      <rect>
        38 11 2 2</rect></_>
    <_>
      <rect>
        38 18 3 4</rect></_>
    <_>
      <rect>
        39 0 7 5</rect></_>
    <_>
      <rect>
        39 6 7 2</rect></_>
    <_>
      <rect>
        39 10 5 3</rect></_>
    <_>
      <rect>
        39 11 2 2</rect></_>
    <_>
      <rect>
        39 12 4 1</rect></_>
    <_>
      <rect>
        39 13 5 3</rect></_>
    <_>
      <rect>
        39 24 1 1</rect></_>
    <_>
      <rect>
        40 0 3 7</rect></_>
    <_>
      <rect>
        40 4 2 4</rect></_>
    <_>
      <rect>
        40 6 2 1</rect></_>
    <_>
      <rect>
        40 7 3 3</rect></_>
    <_>
      <rect>
        40 9 3 4</rect></_>
    <_>
      <rect>
        40 10 3 2</rect></_>
    <_>
      <rect>
        40 10 3 3</rect></_>
    <_>
      <rect>
        40 14 3 3</rect></_>
    <_>
      <rect>
        41 1 2 5</rect></_>
    <_>
      <rect>
        41 3 2 5</rect></_>
    <_>
      <rect>
        41 3 3 2</rect></_>
    <_>
      <rect>
        41 6 2 4</rect></_>
    <_>
      <rect>
        41 9 3 2</rect></_>
    <_>
      <rect>
        41 9 3 3</rect></_>
    <_>
      <rect>
        41 11 3 2</rect></_>
    <_>
      <rect>
        41 12 2 1</rect></_>
    <_>
      <rect>
        41 14 3 4</rect></_>
    <_>
      <rect>
        41 24 2 2</rect></_>
    <_>
      <rect>
        42 2 4 3</rect></_>
    <_>
      <rect>
        42 3 3 1</rect></_>
    <_>
      <rect>
        42 4 2 4</rect></_>
    <_>
      <rect>
        42 8 5 4</rect></_>
    <_>
      <rect>
        42 8 9 2</rect></_>
    <_>
      <rect>
        42 10 1 2</rect></_>
    <_>
      <rect>
        42 11 3 5</rect></_>
    <_>
      <rect>
        42 16 3 2</rect></_>
    <_>
      <rect>
        42 23 2 1</rect></_>
    <_>
      <rect>
        43 3 3 2</rect></_>
    <_>
      <rect>
        43 7 3 2</rect></_>
    <_>
      <rect>
        43 7 6 2</rect></_>
    <_>
      <rect>
        43 12 1 1</rect></_>
    <_>
      <rect>
        43 13 3 2</rect></_>
    <_>
      <rect>
        43 22 1 1</rect></_>
    <_>
      <rect>
        43 23 2 1</rect></_>
    <_>
      <rect>
        44 4 3 2</rect></_>
    <_>
      <rect>
        44 7 2 1</rect></_>
    <_>
      <rect>
        44 8 2 2</rect></_>
    <_>
      <rect>
        44 12 1 2</rect></_>
    <_>
      <rect>
        44 13 2 1</rect></_>
    <_>
      <rect>
        44 17 3 3</rect></_>
    <_>
      <rect>
        44 17 5 2</rect></_>
    <_>
      <rect>
        44 19 6 3</rect></_>
    <_>
      <rect>
        44 21 7 2</rect></_>
    <_>
      <rect>
        44 24 2 2</rect></_>
    <_>
      <rect>
        44 25 2 1</rect></_>
    <_>
      <rect>
        45 9 3 2</rect></_>
    <_>
      <rect>
        45 11 3 4</rect></_>
    <_>
      <rect>
        45 11 6 4</rect></_>
    <_>
      <rect>
        45 12 2 4</rect></_>
    <_>
      <rect>
        45 13 2 2</rect></_>
    <_>
      <rect>
        45 14 6 2</rect></_>
    <_>
      <rect>
        45 17 3 4</rect></_>
    <_>
      <rect>
        45 20 2 3</rect></_>
    <_>
      <rect>
        46 3 2 5</rect></_>
    <_>
      <rect>
        46 11 3 2</rect></_>
    <_>
      <rect>
        46 14 3 3</rect></_>
    <_>
      <rect>
        46 16 3 2</rect></_>
    <_>
      <rect>
        46 25 2 1</rect></_>
    <_>
      <rect>
        47 2 3 3</rect></_>
    <_>
      <rect>
        47 4 2 6</rect></_>
    <_>
      <rect>
        47 8 3 3</rect></_>
    <_>
      <rect>
        47 10 2 2</rect></_>
    <_>
      <rect>
        47 14 1 1</rect></_>
    <_>
      <rect>
        47 14 2 2</rect></_>
    <_>
      <rect>
        47 17 3 3</rect></_>
    <_>
      <rect>
        48 5 2 2</rect></_>
    <_>
      <rect>
        48 5 5 6</rect></_>
    <_>
      <rect>
        48 5 5 7</rect></_>
    <_>
      <rect>
        48 12 2 2</rect></_>
    <_>
      <rect>
        48 13 3 2</rect></_>
    <_>
      <rect>
        48 13 4 2</rect></_>
    <_>
      <rect>
        48 14 2 2</rect></_>
    <_>
      <rect>
        48 14 6 2</rect></_>
    <_>
      <rect>
        48 16 3 2</rect></_>
    <_>
      <rect>
        48 16 14 4</rect></_>
    <_>
      <rect>
        49 3 2 5</rect></_>
    <_>
      <rect>
        49 3 3 6</rect></_>
    <_>
      <rect>
        49 4 5 3</rect></_>
    <_>
      <rect>
        49 7 3 3</rect></_>
    <_>
      <rect>
        49 8 3 3</rect></_>
    <_>
      <rect>
        49 10 2 3</rect></_>
    <_>
      <rect>
        49 11 2 3</rect></_>
    <_>
      <rect>
        49 12 4 2</rect></_>
    <_>
      <rect>
        49 12 7 2</rect></_>
    <_>
      <rect>
        49 14 3 3</rect></_>
    <_>
      <rect>
        49 17 1 1</rect></_>
    <_>
      <rect>
        49 20 1 1</rect></_>
    <_>
      <rect>
        50 5 10 8</rect></_>
    <_>
      <rect>
        50 9 3 3</rect></_>
    <_>
      <rect>
        50 11 2 2</rect></_>
    <_>
      <rect>
        50 11 5 4</rect></_>
    <_>
      <rect>
        50 13 3 3</rect></_>
    <_>
      <rect>
        50 15 1 1</rect></_>
    <_>
      <rect>
        50 21 2 1</rect></_>
    <_>
      <rect>
        50 24 2 2</rect></_>
    <_>
      <rect>
        51 11 5 3</rect></_>
    <_>
      <rect>
        51 16 3 2</rect></_>
    <_>
      <rect>
        52 0 10 3</rect></_>
    <_>
      <rect>
        52 10 3 2</rect></_>
    <_>
      <rect>
        52 18 1 1</rect></_>
    <_>
      <rect>
        53 10 3 3</rect></_>
    <_>
      <rect>
        53 16 3 4</rect></_>
    <_>
      <rect>
        54 12 1 1</rect></_>
    <_>
      <rect>
        54 12 5 4</rect></_>
    <_>
      <rect>
        54 18 2 2</rect></_>
    <_>
      <rect>
        54 26 2 1</rect></_>
    <_>
      <rect>
        55 15 4 2</rect></_>
    <_>
      <rect>
        55 16 3 2</rect></_>
    <_>
      <rect>
        56 8 1 1</rect></_>
    <_>
      <rect>
        56 17 3 2</rect></_>
    <_>
      <rect>
        56 20 6 2</rect></_>
    <_>
      <rect>
        57 8 3 3</rect></_>
    <_>
      <rect>
        57 10 4 2</rect></_>
    <_>
      <rect>
        58 11 3 2</rect></_>
    <_>
      <rect>
        59 7 3 6</rect></_>
    <_>
      <rect>
        60 13 3 2</rect></_>
    <_>
      <rect>
        60 15 3 2</rect></_>
    <_>
      <rect>
        60 16 2 2</rect></_>
    <_>
      <rect>
        60 16 3 1</rect></_>
    <_>
      <rect>
        61 12 3 1</rect></_>
    <_>
      <rect>
        62 13 3 2</rect></_>
    <_>
      <rect>
        69 11 5 2</rect></_></features></cascade>
</opencv_storage>
