<?xml version="1.0"?>
<opencv_storage>
<stage2>
  <maxWeakCount>10</maxWeakCount>
  <stageThreshold>-8.6192113161087036e-01</stageThreshold>
  <weakClassifiers>
    <_>
      <internalNodes>
        0 -1 5672443 -3.0064614838920534e-04</internalNodes>
      <leafValues>
        8.4293192625045776e-01 -4.8387095332145691e-02</leafValues></_>
    <_>
      <internalNodes>
        0 -1 6207251 3.3698473125696182e-03</internalNodes>
      <leafValues>
        2.5120648741722107e-01 -7.7453511953353882e-01</leafValues></_>
    <_>
      <internalNodes>
        0 -1 6122416 -2.0336196757853031e-03</internalNodes>
      <leafValues>
        -6.7539262771606445e-01 1.9319875538349152e-01</leafValues></_>
    <_>
      <internalNodes>
        0 -1 4931762 -7.3430326301604509e-04</internalNodes>
      <leafValues>
        8.1103152036666870e-01 -2.0225365459918976e-01</leafValues></_>
    <_>
      <internalNodes>
        0 -1 5874075 -3.4530670382082462e-03</internalNodes>
      <leafValues>
        8.4374225139617920e-01 -1.6128176450729370e-01</leafValues></_>
    <_>
      <internalNodes>
        0 -1 5943167 9.2775756493210793e-03</internalNodes>
      <leafValues>
        2.0488929748535156e-01 -7.9947084188461304e-01</leafValues></_>
    <_>
      <internalNodes>
        0 -1 5863858 6.1228487174957991e-04</internalNodes>
      <leafValues>
        -2.1856047213077545e-01 6.6027963161468506e-01</leafValues></_>
    <_>
      <internalNodes>
        0 -1 5038748 -4.3051928514614701e-04</internalNodes>
      <leafValues>
        6.3048219680786133e-01 -2.1866635978221893e-01</leafValues></_>
    <_>
      <internalNodes>
        0 -1 6144163 -8.8007980957627296e-04</internalNodes>
      <leafValues>
        6.4723956584930420e-01 -1.8313410878181458e-01</leafValues></_>
    <_>
      <internalNodes>
        0 -1 269559 -8.9727994054555893e-03</internalNodes>
      <leafValues>
        3.8965916633605957e-01 -3.3941993117332458e-01</leafValues></_></weakClassifiers></stage2>
</opencv_storage>
