<?xml version="1.0"?>
<opencv_storage>
<stage14>
  <maxWeakCount>17</maxWeakCount>
  <stageThreshold>-9.3238025903701782e-01</stageThreshold>
  <weakClassifiers>
    <_>
      <internalNodes>
        0 -1 5569896 -7.8445948020089418e-05</internalNodes>
      <leafValues>
        -7.0285713672637939e-01 4.0143886208534241e-01</leafValues></_>
    <_>
      <internalNodes>
        0 -1 5762860 1.2315502390265465e-03</internalNodes>
      <leafValues>
        -1.6168761253356934e-01 6.3835412263870239e-01</leafValues></_>
    <_>
      <internalNodes>
        0 -1 7703665 -1.2590340338647366e-04</internalNodes>
      <leafValues>
        -6.1675876379013062e-01 1.7463411390781403e-01</leafValues></_>
    <_>
      <internalNodes>
        0 -1 3451885 1.8457058817148209e-02</internalNodes>
      <leafValues>
        -1.4435137808322906e-01 7.3280262947082520e-01</leafValues></_>
    <_>
      <internalNodes>
        0 -1 4553789 6.7348387092351913e-03</internalNodes>
      <leafValues>
        1.5423858165740967e-01 -6.6345041990280151e-01</leafValues></_>
    <_>
      <internalNodes>
        0 -1 4524500 6.3817724585533142e-03</internalNodes>
      <leafValues>
        1.3425087928771973e-01 -7.1678042411804199e-01</leafValues></_>
    <_>
      <internalNodes>
        0 -1 1762508 -5.0720557570457458e-02</internalNodes>
      <leafValues>
        6.2356173992156982e-01 -2.1213603019714355e-01</leafValues></_>
    <_>
      <internalNodes>
        0 -1 7761033 -6.5078225452452898e-04</internalNodes>
      <leafValues>
        -5.2964115142822266e-01 2.2878469526767731e-01</leafValues></_>
    <_>
      <internalNodes>
        0 -1 5480909 -1.7614807002246380e-03</internalNodes>
      <leafValues>
        7.4461579322814941e-01 -1.8225204944610596e-01</leafValues></_>
    <_>
      <internalNodes>
        0 -1 7759308 1.2008540943497792e-04</internalNodes>
      <leafValues>
        2.5574856996536255e-01 -4.0896779298782349e-01</leafValues></_>
    <_>
      <internalNodes>
        0 -1 3320690 2.3971870541572571e-02</internalNodes>
      <leafValues>
        -1.7094297707080841e-01 6.9820690155029297e-01</leafValues></_>
    <_>
      <internalNodes>
        0 -1 5472346 3.4112815046682954e-04</internalNodes>
      <leafValues>
        -1.2665091454982758e-01 6.8023449182510376e-01</leafValues></_>
    <_>
      <internalNodes>
        0 -1 5968663 -1.6311057843267918e-03</internalNodes>
      <leafValues>
        6.9295746088027954e-01 -1.2957957386970520e-01</leafValues></_>
    <_>
      <internalNodes>
        0 -1 6147876 1.5341609250754118e-03</internalNodes>
      <leafValues>
        -1.2808483839035034e-01 7.0575499534606934e-01</leafValues></_>
    <_>
      <internalNodes>
        0 -1 4470929 1.2135484721511602e-03</internalNodes>
      <leafValues>
        -1.9378781318664551e-01 4.8387137055397034e-01</leafValues></_>
    <_>
      <internalNodes>
        0 -1 5981200 2.7578033041208982e-04</internalNodes>
      <leafValues>
        1.7914535105228424e-01 -6.3739347457885742e-01</leafValues></_>
    <_>
      <internalNodes>
        0 -1 7350159 2.4682100862264633e-02</internalNodes>
      <leafValues>
        -1.9960379600524902e-01 5.5203765630722046e-01</leafValues></_></weakClassifiers></stage14>
</opencv_storage>
